{"model_type":"linear_residual_regression_v2","model_version":"linear-v2-20260320230626","trained_at":"2026-03-20T14:06:26.105609+00:00","sample_count":173,"minimum_ml_samples":30,"recommended_ml_samples":100,"target":"delta = corrected_score - rule_score","feature_names":["brightnessMean","brightnessStd","contrast","overexposedRatio","underexposedRatio","entropy","saturationRatio","sharpnessRaw","noiseEstimate","meanEdge","dominantEdge","leftRightBalance","topBottomBalance","thirdsAlignment","subjectConcentration","subjectCenterSupport","subjectXRatio","subjectYRatio","backgroundInformation","backgroundClutter","compositionScore","lightScore","colorScore","technicalScore","subjectScore","impactScore","ruleTotalScore"],"means":[118.99460013582537,54.28166848639609,0.4240755350499695,0.02836062589088655,0.0984716640478009,7.019394471748039,0.29312371620625055,20.27117424436141,1.4895543403446192,56.24940935729858,104.46430733563594,0.856671970774599,0.702509991615028,0.5223936254872319,0.06213832657477065,0.8754955225913997,0.4931856648415589,0.5174420385147315,0.5598142945346443,0.3531164692589443,63.86705202312139,74.34104046242774,70.16184971098266,67.7514450867052,61.092485549132945,67.60693641618496,65.89017341040463],"scales":[43.32057598902052,12.987595299311732,0.1014655882758729,0.10148718773488712,0.18742538984503004,1.1960415866608287,0.22357066403266798,16.29565055660535,0.8815815250291853,35.46002543928968,72.62344080808045,0.14971930141211198,0.21613739581478006,0.0901336781173378,0.022066164331471395,0.16367780162566312,0.037718870524500514,0.07229822689188167,0.24764419272349056,0.10906557441165185,3.7230280085176486,13.847409267661172,13.339382391630053,27.3937582168129,9.106473664826176,5.216288227158226,6.255131209168778],"weights":[2.274983598877656,-0.06621265987718958,-0.06621265987718958,-1.7831738056415554,2.864573011994828,0.72000036448687,1.4526303475193494,-0.05861387949926426,-0.5790608062388343,-2.5491857273735734,3.115893559471825,-0.41086214001070887,-0.5148905187662182,-0.21356704768045898,-0.13053643316184005,-0.13609949623382836,0.19440360115268088,-0.057003386238900104,-0.6361554985765187,-0.14521142708034632,-0.15525548564733127,-0.674971476740461,0.48021041909916196,-0.762987911191219,-0.5323900952709756,0.4176910325430924,-0.9138982677140571],"bias":-0.809248554913284,"training_mae":3.245737171832561}